{"type":"NeuralNetwork","sizes":[6,6,1],"layers":[{"weights":[],"biases":[]},{"weights":[[-0.11317971348762512,-0.1586650311946869,0.1513012796640396,-0.016723880544304848,0.07981917262077332,-0.04681369662284851],[-0.12292443215847015,-0.07414663583040237,0.000266113638645038,-0.1935005635023117,0.2835947871208191,0.023074505850672722],[-0.005618886556476355,0.08080552518367767,-0.18142738938331604,0.0887489840388298,0.006316570099443197,0.17904318869113922],[0.19000762701034546,-0.025227896869182587,-0.11233169585466385,-0.010370072908699512,-0.09755031764507294,0.19731085002422333],[-0.013974601402878761,-0.07748397439718246,-0.24336467683315277,0.1795884221792221,0.12446566671133041,0.04907174035906792],[0.08467494696378708,-0.06110614910721779,0.07949972152709961,0.06168713793158531,-0.09046070277690887,0.010621599853038788]],"biases":[-0.0883822962641716,0.19510574638843536,0.07208119332790375,0.07300901412963867,0.17601005733013153,-0.20704525709152222]},{"weights":[[0.35696834325790405,-0.7533172965049744,-0.5931096076965332,-0.582176148891449,-0.6527860760688782,0.5442936420440674]],"biases":[-0.19120271503925323]}],"inputLookup":{"faltes":0,"retards":1,"percentDintre":2,"percentTard":3,"actitud":4,"sentiment":5},"inputLookupLength":6,"outputLookup":{"nota":0},"outputLookupLength":1,"options":{"inputSize":0,"outputSize":0,"binaryThresh":0.5,"hiddenLayers":[6]},"trainOpts":{"activation":"sigmoid","iterations":500,"errorThresh":0.005,"log":false,"logPeriod":10,"leakyReluAlpha":0.01,"learningRate":0.3,"momentum":0.1,"callbackPeriod":10,"timeout":"Infinity","beta1":0.9,"beta2":0.999,"epsilon":1e-8}}